digraph Tree {
node [shape=box, style="filled, rounded", color="black", fontname=helvetica] ;
edge [fontname=helvetica] ;
0 [label="age <= -0.7754\nentropy = 0.9307\nsamples = 462\nvalue = [302, 160]", fillcolor="#e5813978"] ;
1 [label="tobacco <= -0.6813\nentropy = 0.4212\nsamples = 117\nvalue = [107, 10]", fillcolor="#e58139e7"] ;
0 -> 1 [labeldistance=2.5, labelangle=45, headlabel="True"] ;
2 [label="ldl <= -1.1337\nentropy = 0.096\nsamples = 81\nvalue = [80, 1]", fillcolor="#e58139fc"] ;
1 -> 2 ;
3 [label="entropy = 0.3373\nsamples = 16\nvalue = [15, 1]", fillcolor="#e58139ee"] ;
2 -> 3 ;
4 [label="entropy = 0.0\nsamples = 65\nvalue = [65, 0]", fillcolor="#e58139ff"] ;
2 -> 4 ;
5 [label="alcohol <= -0.2429\nentropy = 0.8113\nsamples = 36\nvalue = [27, 9]", fillcolor="#e58139aa"] ;
1 -> 5 ;
6 [label="entropy = 0.0\nsamples = 16\nvalue = [16, 0]", fillcolor="#e58139ff"] ;
5 -> 6 ;
7 [label="entropy = 0.9928\nsamples = 20\nvalue = [11, 9]", fillcolor="#e581392e"] ;
5 -> 7 ;
8 [label="age <= 0.5265\nentropy = 0.9877\nsamples = 345\nvalue = [195, 150]", fillcolor="#e581393b"] ;
0 -> 8 [labeldistance=2.5, labelangle=-45, headlabel="False"] ;
9 [label="typea <= 1.5699\nentropy = 0.8956\nsamples = 173\nvalue = [119, 54]", fillcolor="#e581398b"] ;
8 -> 9 ;
10 [label="entropy = 0.8461\nsamples = 161\nvalue = [117, 44]", fillcolor="#e581399f"] ;
9 -> 10 ;
11 [label="entropy = 0.65\nsamples = 12\nvalue = [2, 10]", fillcolor="#399de5cc"] ;
9 -> 11 ;
12 [label="famhist <= -0.1713\nentropy = 0.9902\nsamples = 172\nvalue = [76, 96]", fillcolor="#399de535"] ;
8 -> 12 ;
13 [label="entropy = 0.8813\nsamples = 90\nvalue = [27, 63]", fillcolor="#399de592"] ;
12 -> 13 ;
14 [label="entropy = 0.9724\nsamples = 82\nvalue = [49, 33]", fillcolor="#e5813953"] ;
12 -> 14 ;
}